solver_type L1R_L2LOSS_SVC
nr_class 19
label 0 18 10 11 14 17 6 20 15 21 1 4 5 2 7 22 16 12 9
nr_feature 41
bias -1
w
1.100837933835791e-005 -0.09867346827783047 -0.1159864344591452 0 -0.001697640024193226 3.00578136116657e-005 -0.008946312249584833 0 4.627821605053031e-005 0.0003313618270904881 -0.1723199995878015 -0.09952205641378677 0 0.0001466474484392374 0 0 2.244300124368714e-005 -0.001569539415918989 -0.003565489654587817 
0.5256110893489437 -0.2579495709917569 -1.088066728648834 0.05579799617077024 -1.413960350384487 0.9027882834985602 0.09944775385254127 -0.1361092534387781 -0.5088569151191459 -3.989932973974041 0 0 0 0 0 0 0 0 -0.4367364643820604 
-0.004498474074499252 -0.01280145434787441 0.008384271374967955 0.005754858161074582 -0.1584252910193334 -0.04360596144993695 0.04417408922107309 -0.02589772834416838 -0.01084800843887013 0.07945695765818447 -1.458120894252994 0 -0.005854839975678015 -0.05342693494946899 -0.08170608428855258 -0.03987709460192469 -0.1234313178382433 -0.01735747173446656 0.01145240057513909 
-0.2407610996628578 -0.4931734064579127 0.3508819507121352 0.2316087628591755 -1.031056091197141 -0.1509932117734252 -0.09069982741218235 -0.1855999901999264 0.1860938991493216 -1.785863011414099 0.07412399563969876 0.02818709537044607 -0.06488808179143338 0 0.03764831957578105 -0.1063596920926731 0 0 -0.1732230573415339 
-9.172291292991497e-006 -9.526222445426887e-007 -0.0008714394479071198 -0.0001544772692159615 1.575478851818041e-006 -0.08498622191776248 -0.01746979624649246 -0.0008185089991577116 -0.004241270936542228 -2.113468147755254e-007 4.114317931026528e-005 0 -0.09646879411622686 8.052590273977955e-007 -0.01472032900522659 -0.01183829188827554 1.42790526376358e-006 -0.0004128400983017587 4.166818850089751e-006 
-1.676430073366057e-007 -0.01008904312110835 -0.002976058502089255 -0.01310606776218231 -0.04607562607818178 -0.01500910483793014 -0.01420568073034282 -0.008777161828868115 -0.01020080135040614 -0.001660973886625638 1.42728953865726e-006 1.958649095533171e-007 -0.02534575238651563 -0.0001611253438081461 -0.002367397156238369 4.440444201328719e-007 3.927776185920023e-007 3.409360151370306e-008 -0.1573239361495419 
0 0 0 -0.2124704520139721 0 0 0 0 0 0 0 0 0 0 1.197203224548658 0 0 0 0 
-2.277276822772592 -0.6031044650802535 0 -0.002729665285197386 1.322481968227485 -0.04292506374531804 0 0.7938081884112243 0 0 0 0 0 0 0 0 0 0 0 
0 0 0 0 0 0 0 0 0 0 0 0 0 0 0 0 0 0 0 
-0.08573433498682601 0 0 -0.4137629303205038 0 0 0 0 0 0.2344428658442748 0.2575741712801263 0.03563984217168383 0 0 0 0 0 0 0 
-0.4075722963575765 0 -1.49438218064756 0 0 0 0 0 0 0 0 1.97050096591188 0 0 0 0 0 0 0 
0.325624831648954 -1.266654032147243 -1.066770374034306 -0.4165094889949477 -0.817368530213643 -0.3350910673742669 -0.314407589413601 -0.07024110575513168 0 1.466044127844368 0 0 0 0 0 0 0 0 -0.7098561180056244 
-1.741360878612812 0 0 0 0 0 0 0 0 0 0.7624756737374688 0 0 0.5204181237120771 0 0 0.09245322425658581 0 0 
-1.568379727020125 0 0 0 0 0 0 0 0 0 0 0 0 0 0 0 0 0 0 
0 0 0 0 0 0 0 0 0 0 0 0 0 0 0 0 0 0 0 
0.3576995975853672 0 0 0 0 0 0 0 0 -0.2255563488433749 0 0 0 0 0 0 0.251898434556119 0.05571162892751089 0 
0 0 0 0 0 0 0 0 0 0 0 0 0 0 0 0 0 0.8745264408021535 0 
0 0 0 0 0 0 0 0 0 0 0 0 0 0 0 0 0 0 0 
0.1080732275421812 0 0 0 0 0 0 0 0 0 0 0 0 0 0 0 0 0 0 
0 0 0 0 0 0 0 0 0 0 0 0 0 0 0 0 0 0 0 
0 0 0 0 0 0 0 0 0 0 0 0 0 0 0 0 0 0 0 
0.4062635854105359 0 0 0 0 0 0 0 0 0.1259300066549856 0 0 0 0 0 0 0 0 0 
-0.008553563011671369 0.0003612349333607244 -0.0008027289957058138 -0.1147165603974723 -0.003998283686454513 0.001712598182095236 -0.2788833551910733 -0.001825837321135385 -0.002891346652336127 -0.3656135340599652 -0.04496712175476593 -0.2483797075275697 -0.003312134592529336 0 -0.02914489454164545 0 -0.1476837370531115 -0.1405982265643544 0 
0.002325296984080526 0.0005621829002781019 0.008302827123710293 0.008530995710304816 -0.05134471471643636 0.002563420571258976 0.0006194321768655571 0.002243270735746891 -0.158695779072662 -0.006125507769742592 -0.002974732282677293 -0.03167643915640887 0.01175232061632528 -0.3006967733384282 0 -0.07681877881356405 -0.1405383061056029 -0.5012396780574573 -0.00463612766875411 
0.8502355133103945 0 0.2405980891584792 -0.4443380096783599 0 -1.212526669357628 0 0 -1.767593181480996 0 0 0 0 0 0.2611998433444729 0 0 0 0 
-0.681765008450542 0 0.09657294029413005 -0.0288195525791082 0 0 0 0 -0.1015923963405844 0 0 0 0 0 0 0 0 0 0 
0.618784499416363 -0.04271761258225052 0.6892080892211446 -0.5044071268802487 0 -0.4403849201990192 0.2068795105406054 0 0.06024839469316176 0 0 0 0 0 -0.005956724535063995 0 0 0 0 
0.5196951205514788 -0.1044228624590588 0.03034783084512658 -0.7741937050475291 0 -0.3677816365245612 0.003953825069253385 0 0.004437476335634747 0 0 0 0 0 -0.005547080141733434 0 0 0 0 
1.250890954141905 0.05498603020158119 -1.080794714076247 -0.9444176549082918 1.087931292794963 -0.3440624120520766 -1.21310619677033 -0.4598147791586897 -0.4190133159051688 -2.79901045108472 -1.06044752424353 -0.6976344124462446 -0.5903542940524279 0 -0.3834726398850462 -0.08637724277545547 -0.2200865984066726 -0.176103649665166 0 
0.7397882311526558 -0.4257170376472997 1.129375912942468 -0.6742815379904298 0 1.014609347702521 -1.473639984070346 -0.1829172632092956 0.2068283795475482 -0.6282106416403881 0 0 0 0 0 0 0 0 0 
-0.4083760223287103 -4.452961890117088 -0.5040200619425634 0.09414343866195152 0.7241933370920145 -0.7936830461395923 -0.02731218205131722 -0.1000819889456175 0 -0.34045740877659 0 0 0 0 0 0 0 0 0 
-0.001963206527062905 -0.0003570912779386503 -0.002080268626702912 -0.001209698839275955 0.0004163222455352521 0.0007882997899132326 -0.00716980702120484 -0.001317508160609192 -0.001393842618523194 0.001133749615067522 0.0004342261031911282 -0.008019607653115084 -0.02227669200432528 -0.03622920674470344 -0.0125578427575679 -0.05055039915924746 0.001446829625168036 -0.0001796398340162134 -0.06813333027539462 
0.002166370317245311 0.002132815576967725 -0.003782705812996012 0.0005877159497459372 -0.002231946967997346 -0.001809802202957628 0.0005605058220612232 0.0002366063170768197 -0.1842864512531948 -0.01070351241267591 -0.001398566470712823 -0.001190102974508627 -0.03120483239338492 -0.168326032581047 -0.005342545811374695 -0.06413397932940099 -0.2294349096351865 -0.02892870992501703 -0.1382937379046879 
-0.06314837823475461 -0.157452323756946 -1.049782771050848 -0.05343928733096531 0 0 0.06162344779621827 -0.2091106876874379 0 1.074815640095431 0 0 0 0 -0.1521825450658244 0 0 0 0 
0.2650017546473402 -17.73235592420968 -3.617220362620498 0 0.3766258232209117 0.825973485961753 1.726133690809965 0 0.6087807479426125 -0.6952504824295651 0 0 0 0 0 0 0 0 0 
-1.027197950595705 0.5463120218285256 -3.845802506822796 0.2359126882901309 0.7391523837377674 -0.9436516933553678 0.3224276041605225 -0.00429189331021975 0.931468122372804 0.9684955195397021 0 0 0 0 0 0 0 0 0 
-2.418445766766668 -4.95139966951291 0 -1.189667990537311 -0.07096742534084244 0 3.296323601082361 -0.1084045363177413 -0.5706779756914259 0 0 0 0 0 0 0 0 0 0 
-0.06012172815635802 0 0.4122021279602084 0 1.101873897119556 0.04074355509956952 -2.494262414680005 0 -1.228667183778112 0 0 0 0 0 0 0 0 0 0 
-0.7804291524075699 0 0.05819333777973888 0 0 -0.01682566061367229 0 0 0.08935727729237086 0 0 0 0 0 0 0 0 0 0 
-0.3886471749776242 -0.263653490939616 0.1217755281358624 -0.08610774913311239 -2.792940524947016 -0.2655027988936242 0 0 -0.129647744770668 0 0 0 0 0 -0.007433152370848316 0 0 0 0 
0.007541810272006616 0 0.3025163396709394 -0.198060055997336 0 0.05726801736107327 -0.8756524452290504 0 -0.1417053009026562 0 0 0 0 0 -0.3228099545588024 0 0 0 0 
